digraph Tree {
node [shape=box, style="filled, rounded", color="black", fontname="helvetica"] ;
edge [fontname="helvetica"] ;
0 [label=<hemo &le; 0.104<br/>gini = 0.5<br/>samples = 320<br/>value = [160.0, 160.0]<br/>class = ckd>, fillcolor="#ffffff"] ;
1 [label=<rc &le; 0.666<br/>gini = 0.114<br/>samples = 187<br/>value = [9.333, 144.0]<br/>class = ckd>, fillcolor="#46a3e7"] ;
0 -> 1 [labeldistance=2.5, labelangle=45, headlabel="True"] ;
2 [label=<bu &le; -0.884<br/>gini = 0.069<br/>samples = 183<br/>value = [5.333, 143.2]<br/>class = ckd>, fillcolor="#40a1e6"] ;
1 -> 2 ;
3 [label=<bgr &le; -0.265<br/>gini = 0.469<br/>samples = 4<br/>value = [2.667, 1.6]<br/>class = notckd>, fillcolor="#f5cdb0"] ;
2 -> 3 ;
4 [label=<gini = 0.0<br/>samples = 2<br/>value = [0.0, 1.6]<br/>class = ckd>, fillcolor="#399de5"] ;
3 -> 4 ;
5 [label=<gini = 0.0<br/>samples = 2<br/>value = [2.667, 0.0]<br/>class = notckd>, fillcolor="#e58139"] ;
3 -> 5 ;
6 [label=<pcv &le; 0.238<br/>gini = 0.036<br/>samples = 179<br/>value = [2.667, 141.6]<br/>class = ckd>, fillcolor="#3d9fe5"] ;
2 -> 6 ;
7 [label=<bgr &le; -0.558<br/>gini = 0.019<br/>samples = 174<br/>value = [1.333, 138.4]<br/>class = ckd>, fillcolor="#3b9ee5"] ;
6 -> 7 ;
8 [label=<bgr &le; -0.593<br/>gini = 0.126<br/>samples = 24<br/>value = [1.333, 18.4]<br/>class = ckd>, fillcolor="#47a4e7"] ;
7 -> 8 ;
9 [label=<su &le; 0.5<br/>gini = 0.0<br/>samples = 23<br/>value = [0.0, 18.4]<br/>class = ckd>, fillcolor="#399de5"] ;
8 -> 9 ;
10 [label=<gini = 0.0<br/>samples = 17<br/>value = [0.0, 13.6]<br/>class = ckd>, fillcolor="#399de5"] ;
9 -> 10 ;
11 [label=<gini = 0.0<br/>samples = 6<br/>value = [0.0, 4.8]<br/>class = ckd>, fillcolor="#399de5"] ;
9 -> 11 ;
12 [label=<gini = -0.0<br/>samples = 1<br/>value = [1.333, 0.0]<br/>class = notckd>, fillcolor="#e58139"] ;
8 -> 12 ;
13 [label=<bgr &le; -0.522<br/>gini = 0.0<br/>samples = 150<br/>value = [0.0, 120.0]<br/>class = ckd>, fillcolor="#399de5"] ;
7 -> 13 ;
14 [label=<gini = 0.0<br/>samples = 1<br/>value = [0.0, 0.8]<br/>class = ckd>, fillcolor="#399de5"] ;
13 -> 14 ;
15 [label=<gini = 0.0<br/>samples = 149<br/>value = [0.0, 119.2]<br/>class = ckd>, fillcolor="#399de5"] ;
13 -> 15 ;
16 [label=<bu &le; -0.388<br/>gini = 0.415<br/>samples = 5<br/>value = [1.333, 3.2]<br/>class = ckd>, fillcolor="#8bc6f0"] ;
6 -> 16 ;
17 [label=<gini = 0.0<br/>samples = 4<br/>value = [0.0, 3.2]<br/>class = ckd>, fillcolor="#399de5"] ;
16 -> 17 ;
18 [label=<gini = -0.0<br/>samples = 1<br/>value = [1.333, 0.0]<br/>class = notckd>, fillcolor="#e58139"] ;
16 -> 18 ;
19 [label=<bu &le; 1.287<br/>gini = 0.278<br/>samples = 4<br/>value = [4.0, 0.8]<br/>class = notckd>, fillcolor="#ea9a61"] ;
1 -> 19 ;
20 [label=<gini = 0.0<br/>samples = 3<br/>value = [4, 0]<br/>class = notckd>, fillcolor="#e58139"] ;
19 -> 20 ;
21 [label=<gini = -0.0<br/>samples = 1<br/>value = [0.0, 0.8]<br/>class = ckd>, fillcolor="#399de5"] ;
19 -> 21 ;
22 [label=<sg &le; -0.234<br/>gini = 0.174<br/>samples = 133<br/>value = [150.667, 16.0]<br/>class = notckd>, fillcolor="#e88e4e"] ;
0 -> 22 [labeldistance=2.5, labelangle=-45, headlabel="False"] ;
23 [label=<gini = 0.0<br/>samples = 17<br/>value = [0.0, 13.6]<br/>class = ckd>, fillcolor="#399de5"] ;
22 -> 23 ;
24 [label=<htn &le; 0.5<br/>gini = 0.031<br/>samples = 116<br/>value = [150.667, 2.4]<br/>class = notckd>, fillcolor="#e5833c"] ;
22 -> 24 ;
25 [label=<gini = 0.0<br/>samples = 113<br/>value = [150.667, 0.0]<br/>class = notckd>, fillcolor="#e58139"] ;
24 -> 25 ;
26 [label=<su &le; 0.5<br/>gini = 0.0<br/>samples = 3<br/>value = [0.0, 2.4]<br/>class = ckd>, fillcolor="#399de5"] ;
24 -> 26 ;
27 [label=<gini = 0.0<br/>samples = 1<br/>value = [0.0, 0.8]<br/>class = ckd>, fillcolor="#399de5"] ;
26 -> 27 ;
28 [label=<gini = 0.0<br/>samples = 2<br/>value = [0.0, 1.6]<br/>class = ckd>, fillcolor="#399de5"] ;
26 -> 28 ;
}